<?xml version="1.0"?>
<MethodSetup Method="MLP::MLP">
  <GeneralInfo>
    <Info name="TMVA Release" value="4.2.1 [262657]"/>
    <Info name="ROOT Release" value="6.10/05 [395781]"/>
    <Info name="Creator" value="bjoshi"/>
    <Info name="Date" value="Wed Jul 24 14:12:27 2019"/>
    <Info name="Host" value="Linux cmsbuild24.cern.ch 2.6.32-642.11.1.el6.x86_64 #1 SMP Wed Nov 16 09:40:09 CET 2016 x86_64 x86_64 x86_64 GNU/Linux"/>
    <Info name="Dir" value="/afs/cern.ch/work/b/bjoshi/Analysis/workdirtmvaanalysisJul_11_2019/Code/CommonUtils/tmva"/>
    <Info name="Training events" value="40067"/>
    <Info name="TrainingTime" value="1.80025694e+02"/>
    <Info name="AnalysisType" value="Classification"/>
  </GeneralInfo>
  <Options>
    <Option name="NCycles" modified="Yes">600</Option>
    <Option name="HiddenLayers" modified="Yes">N+5</Option>
    <Option name="NeuronType" modified="Yes">tanh</Option>
    <Option name="RandomSeed" modified="No">1</Option>
    <Option name="EstimatorType" modified="No">CE</Option>
    <Option name="NeuronInputType" modified="No">sum</Option>
    <Option name="V" modified="Yes">False</Option>
    <Option name="VerbosityLevel" modified="No">Default</Option>
    <Option name="VarTransform" modified="Yes">N</Option>
    <Option name="H" modified="Yes">True</Option>
    <Option name="CreateMVAPdfs" modified="No">False</Option>
    <Option name="IgnoreNegWeightsInTraining" modified="No">False</Option>
    <Option name="TrainingMethod" modified="No">BP</Option>
    <Option name="LearningRate" modified="No">2.000000e-02</Option>
    <Option name="DecayRate" modified="No">1.000000e-02</Option>
    <Option name="TestRate" modified="Yes">5</Option>
    <Option name="EpochMonitoring" modified="No">False</Option>
    <Option name="Sampling" modified="No">1.000000e+00</Option>
    <Option name="SamplingEpoch" modified="No">1.000000e+00</Option>
    <Option name="SamplingImportance" modified="No">1.000000e+00</Option>
    <Option name="SamplingTraining" modified="No">True</Option>
    <Option name="SamplingTesting" modified="No">False</Option>
    <Option name="ResetStep" modified="No">50</Option>
    <Option name="Tau" modified="No">3.000000e+00</Option>
    <Option name="BPMode" modified="No">sequential</Option>
    <Option name="BatchSize" modified="No">-1</Option>
    <Option name="ConvergenceImprove" modified="No">1.000000e-30</Option>
    <Option name="ConvergenceTests" modified="No">-1</Option>
    <Option name="UseRegulator" modified="Yes">False</Option>
    <Option name="UpdateLimit" modified="No">10000</Option>
    <Option name="CalculateErrors" modified="No">False</Option>
    <Option name="WeightRange" modified="No">1.000000e+00</Option>
  </Options>
  <Variables NVar="8">
    <Variable VarIndex="0" Expression="var_vertexKFChi2" Label="var_vertexKFChi2" Title="Variable vertexKFChi2" Unit="units" Internal="var_vertexKFChi2" Type="F" Min="1.70780579e-04" Max="9.97633667e+01"/>
    <Variable VarIndex="1" Expression="var_svpvTauAngle" Label="var_svpvTauAngle" Title="Variable svpvTauAngle" Unit="units" Internal="var_svpvTauAngle" Type="F" Min="5.68933501e-05" Max="2.91128898e+00"/>
    <Variable VarIndex="2" Expression="var_flightLenSig" Label="var_flightLenSig" Title="Variable flightLenSig" Unit="units" Internal="var_flightLenSig" Type="F" Min="2.49220505e-01" Max="2.24689236e+01"/>
    <Variable VarIndex="3" Expression="var_sumMuTrkKinkChi2" Label="var_sumMuTrkKinkChi2" Title="Variable sumMuTrkKinkChi2" Unit="units" Internal="var_sumMuTrkKinkChi2" Type="F" Min="5.59860039e+00" Max="1.91075647e+03"/>
    <Variable VarIndex="4" Expression="var_segCompMuMin" Label="var_segCompMuMin" Title="Variable segCompMuMin" Unit="units" Internal="var_segCompMuMin" Type="F" Min="0.00000000e+00" Max="1.00000000e+00"/>
    <Variable VarIndex="5" Expression="var_MinMIPLikelihood" Label="var_MinMIPLikelihood" Title="Variable MinMIPLikelihood" Unit="units" Internal="var_MinMIPLikelihood" Type="F" Min="1.02196088e-06" Max="9.95764613e-01"/>
    <Variable VarIndex="6" Expression="var_isoMax" Label="var_isoMax" Title="Variable isoMax" Unit="units" Internal="var_isoMax" Type="F" Min="0.00000000e+00" Max="4.41369858e+01"/>
    <Variable VarIndex="7" Expression="var_maxdca" Label="var_maxdca" Title="Variable maxdca" Unit="units" Internal="var_maxdca" Type="F" Min="1.02996826e-04" Max="6.07498550e+00"/>
  </Variables>
  <Spectators NSpec="1">
    <Spectator SpecIndex="0" Expression="var_tauMass" Label="var_tauMass" Title="Variable tauMass" Unit="units" Internal="var_tauMass" Type="F" Min="6.72131002e-01" Max="3.83080459e+00"/>
  </Spectators>
  <Classes NClass="2">
    <Class Name="Signal" Index="0"/>
    <Class Name="Background" Index="1"/>
  </Classes>
  <Transformations NTransformations="1">
    <Transform Name="Normalize">
      <Selection>
        <Input NInputs="8">
          <Input Type="Variable" Label="var_vertexKFChi2" Expression="var_vertexKFChi2"/>
          <Input Type="Variable" Label="var_svpvTauAngle" Expression="var_svpvTauAngle"/>
          <Input Type="Variable" Label="var_flightLenSig" Expression="var_flightLenSig"/>
          <Input Type="Variable" Label="var_sumMuTrkKinkChi2" Expression="var_sumMuTrkKinkChi2"/>
          <Input Type="Variable" Label="var_segCompMuMin" Expression="var_segCompMuMin"/>
          <Input Type="Variable" Label="var_MinMIPLikelihood" Expression="var_MinMIPLikelihood"/>
          <Input Type="Variable" Label="var_isoMax" Expression="var_isoMax"/>
          <Input Type="Variable" Label="var_maxdca" Expression="var_maxdca"/>
        </Input>
        <Output NOutputs="8">
          <Output Type="Variable" Label="var_vertexKFChi2" Expression="var_vertexKFChi2"/>
          <Output Type="Variable" Label="var_svpvTauAngle" Expression="var_svpvTauAngle"/>
          <Output Type="Variable" Label="var_flightLenSig" Expression="var_flightLenSig"/>
          <Output Type="Variable" Label="var_sumMuTrkKinkChi2" Expression="var_sumMuTrkKinkChi2"/>
          <Output Type="Variable" Label="var_segCompMuMin" Expression="var_segCompMuMin"/>
          <Output Type="Variable" Label="var_MinMIPLikelihood" Expression="var_MinMIPLikelihood"/>
          <Output Type="Variable" Label="var_isoMax" Expression="var_isoMax"/>
          <Output Type="Variable" Label="var_maxdca" Expression="var_maxdca"/>
        </Output>
      </Selection>
      <Class ClassIndex="0">
        <Ranges>
          <Range Index="0" Min="1.7078057862818241e-04" Max="9.8002868652343750e+01"/>
          <Range Index="1" Min="5.6893350119935349e-05" Max="1.0269557237625122e+00"/>
          <Range Index="2" Min="2.9736393690109253e-01" Max="2.2468923568725586e+01"/>
          <Range Index="3" Min="5.5986003875732422e+00" Max="1.1418796386718750e+03"/>
          <Range Index="4" Min="0.0000000000000000e+00" Max="1.0000000000000000e+00"/>
          <Range Index="5" Min="1.0219608839179273e-06" Max="9.9576461315155029e-01"/>
          <Range Index="6" Min="0.0000000000000000e+00" Max="4.4136985778808594e+01"/>
          <Range Index="7" Min="1.0299682617187500e-04" Max="6.0749855041503906e+00"/>
        </Ranges>
      </Class>
      <Class ClassIndex="1">
        <Ranges>
          <Range Index="0" Min="1.7332492396235466e-02" Max="9.9763366699218750e+01"/>
          <Range Index="1" Min="1.2369295291136950e-04" Max="2.9112889766693115e+00"/>
          <Range Index="2" Min="2.4922050535678864e-01" Max="1.5848038673400879e+01"/>
          <Range Index="3" Min="8.1997060775756836e+00" Max="1.9107564697265625e+03"/>
          <Range Index="4" Min="0.0000000000000000e+00" Max="1.0000000000000000e+00"/>
          <Range Index="5" Min="4.1263092498411424e-06" Max="9.8184627294540405e-01"/>
          <Range Index="6" Min="1.5072791837155819e-02" Max="3.5546630859375000e+01"/>
          <Range Index="7" Min="3.2163858413696289e-03" Max="5.6087989807128906e+00"/>
        </Ranges>
      </Class>
      <Class ClassIndex="2">
        <Ranges>
          <Range Index="0" Min="1.7078057862818241e-04" Max="9.9763366699218750e+01"/>
          <Range Index="1" Min="5.6893350119935349e-05" Max="2.9112889766693115e+00"/>
          <Range Index="2" Min="2.4922050535678864e-01" Max="2.2468923568725586e+01"/>
          <Range Index="3" Min="5.5986003875732422e+00" Max="1.9107564697265625e+03"/>
          <Range Index="4" Min="0.0000000000000000e+00" Max="1.0000000000000000e+00"/>
          <Range Index="5" Min="1.0219608839179273e-06" Max="9.9576461315155029e-01"/>
          <Range Index="6" Min="0.0000000000000000e+00" Max="4.4136985778808594e+01"/>
          <Range Index="7" Min="1.0299682617187500e-04" Max="6.0749855041503906e+00"/>
        </Ranges>
      </Class>
    </Transform>
  </Transformations>
  <MVAPdfs/>
  <Weights>
    <Layout NLayers="3">
      <Layer Index="0" NNeurons="9">
        <Neuron NSynapses="13">
          -5.5633744131349649e-01 5.6879100135392733e+00 1.5679539344804250e+00 5.0823696178060718e-01 -1.4045287010384482e+00 2.2568073766072644e-02 1.5042945056698048e-01 -5.1672206123522491e-01 -2.0095408667992340e+00 1.6813248397393978e-02 -8.5641332981561902e-01 -7.8285208865459555e-01 -8.1887108373304351e-01 
        </Neuron>
        <Neuron NSynapses="13">
          4.1479378432934171e+00 -2.0867611011435433e-01 5.3515221100684096e+00 7.2532472753062982e-01 2.1070794622088984e+00 1.4718390856542987e-01 5.2713384194366289e-02 -2.1880193690840257e+00 -9.8342330652767931e+00 -1.5622938816274554e+00 -5.8357709008193925e+00 -1.4104197015973379e+00 2.6694944844235013e-01 
        </Neuron>
        <Neuron NSynapses="13">
          7.0560657988404940e-01 -3.4578438983499643e-01 -1.0628788031054373e+01 1.0031942122028319e+00 -1.7733024087835042e-01 -2.7160367236919414e-01 -1.8305528060494722e-01 -3.8481144978048137e-01 1.3866555489000276e+00 7.8028077991680433e-02 3.4826988550185195e-01 9.3148253790724045e-01 -1.1074791067251462e+00 
        </Neuron>
        <Neuron NSynapses="13">
          5.4851986573670120e-01 -7.1954951980887039e-01 4.2672959903617835e+00 9.0321446971336505e-01 -1.4400948468422290e-03 -9.6290436484822017e-01 -7.8700649025964502e+00 4.1947807022902955e-01 -3.8735487671925637e+00 6.4464703473301177e-01 2.0037763142216374e+00 1.0553633396937516e+00 7.1871409883101411e-01 
        </Neuron>
        <Neuron NSynapses="13">
          1.8457058374806905e+00 5.4338312894941905e-02 -8.2946128271016745e-02 -1.5115011738251509e+00 1.5075366771920720e-01 -6.6653585370194701e+00 7.1589578213341739e-03 4.2119718708205420e+00 2.3037141732029490e-01 2.9363542661231190e-01 6.5195718673530981e-02 -3.4696976425238479e-01 1.3747904996688434e-01 
        </Neuron>
        <Neuron NSynapses="13">
          -3.4757417728494167e-02 -5.3211208753901962e-01 -1.0029778377859860e-01 1.8606012976730630e+00 4.2711283220413232e-01 -8.6048902659789012e-02 5.8602744746902795e-02 7.6455932131285459e-02 -1.7987263800608937e-02 2.6991856416333153e+00 -6.6478152599277945e-02 -2.5288625161062313e+00 -2.4346211381794829e+00 
        </Neuron>
        <Neuron NSynapses="13">
          -1.0172011976019184e+00 -7.8354609855040913e-01 4.8607018550929193e-01 1.8700906142371654e-01 1.2928591270532104e+00 1.7770522842221503e+00 1.3803234649273238e-01 -9.5326926247522692e-01 9.0607957527339444e-01 -5.5123921503966433e-01 -6.5632599104692400e+00 -3.4398916606586947e+00 1.1668276720410853e+00 
        </Neuron>
        <Neuron NSynapses="13">
          1.2387779906139020e+00 -9.4843181899624940e-01 3.7495879078894778e+00 2.3133499347311820e-01 7.1360409338369613e-01 -6.3257067529042188e-01 -1.7525929980829577e+01 -1.4725974349649897e+00 4.1352232496409034e+00 -2.2177223730844453e+00 -3.1644423835751562e-01 5.3113974828098265e-01 1.5357536759789452e+00 
        </Neuron>
        <Neuron NSynapses="13">
          3.7043875696967965e+00 -2.5229007785007601e-01 5.8092538681411519e+00 -4.9827025830386557e-01 5.6003222998872160e-01 4.3199050737707356e+00 -2.5565707262389829e+01 -4.1544893974395611e+00 -9.8402166526757444e+00 7.7492563740697851e-03 -1.1485319059929070e+01 2.7897972853455277e+00 2.2368421440424067e+00 
        </Neuron>
      </Layer>
      <Layer Index="1" NNeurons="14">
        <Neuron NSynapses="1">
          -1.7581674699463385e+00 
        </Neuron>
        <Neuron NSynapses="1">
          1.3016260333798200e+00 
        </Neuron>
        <Neuron NSynapses="1">
          -9.5144559213610924e-01 
        </Neuron>
        <Neuron NSynapses="1">
          -1.4143855390210225e+00 
        </Neuron>
        <Neuron NSynapses="1">
          -3.6116017832791076e+00 
        </Neuron>
        <Neuron NSynapses="1">
          -1.4110983790888503e+00 
        </Neuron>
        <Neuron NSynapses="1">
          5.9258395458762658e+00 
        </Neuron>
        <Neuron NSynapses="1">
          7.8886814479207834e-01 
        </Neuron>
        <Neuron NSynapses="1">
          2.7632442970192610e+00 
        </Neuron>
        <Neuron NSynapses="1">
          1.7320780748079034e+00 
        </Neuron>
        <Neuron NSynapses="1">
          2.0994898416492540e+00 
        </Neuron>
        <Neuron NSynapses="1">
          -1.3291298993153209e+00 
        </Neuron>
        <Neuron NSynapses="1">
          -5.7146929240057254e-01 
        </Neuron>
        <Neuron NSynapses="1">
          3.3596256551699222e+00 
        </Neuron>
      </Layer>
      <Layer Index="2" NNeurons="1">
        <Neuron NSynapses="0"/>
      </Layer>
    </Layout>
  </Weights>
</MethodSetup>
