<?xml version="1.0"?>
<MethodSetup Method="MLP::MLP">
  <GeneralInfo>
    <Info name="TMVA Release" value="4.2.1 [262657]"/>
    <Info name="ROOT Release" value="6.10/05 [395781]"/>
    <Info name="Creator" value="bjoshi"/>
    <Info name="Date" value="Wed Jul 24 16:35:34 2019"/>
    <Info name="Host" value="Linux cmsbuild24.cern.ch 2.6.32-642.11.1.el6.x86_64 #1 SMP Wed Nov 16 09:40:09 CET 2016 x86_64 x86_64 x86_64 GNU/Linux"/>
    <Info name="Dir" value="/afs/cern.ch/work/b/bjoshi/Analysis/workdirtmvaanalysisJul_11_2019/Code/CommonUtils/tmva"/>
    <Info name="Training events" value="39427"/>
    <Info name="TrainingTime" value="1.70085473e+02"/>
    <Info name="AnalysisType" value="Classification"/>
  </GeneralInfo>
  <Options>
    <Option name="NCycles" modified="Yes">600</Option>
    <Option name="HiddenLayers" modified="Yes">N+5</Option>
    <Option name="NeuronType" modified="Yes">tanh</Option>
    <Option name="RandomSeed" modified="No">1</Option>
    <Option name="EstimatorType" modified="No">CE</Option>
    <Option name="NeuronInputType" modified="No">sum</Option>
    <Option name="V" modified="Yes">False</Option>
    <Option name="VerbosityLevel" modified="No">Default</Option>
    <Option name="VarTransform" modified="Yes">N</Option>
    <Option name="H" modified="Yes">True</Option>
    <Option name="CreateMVAPdfs" modified="No">False</Option>
    <Option name="IgnoreNegWeightsInTraining" modified="No">False</Option>
    <Option name="TrainingMethod" modified="No">BP</Option>
    <Option name="LearningRate" modified="No">2.000000e-02</Option>
    <Option name="DecayRate" modified="No">1.000000e-02</Option>
    <Option name="TestRate" modified="Yes">5</Option>
    <Option name="EpochMonitoring" modified="No">False</Option>
    <Option name="Sampling" modified="No">1.000000e+00</Option>
    <Option name="SamplingEpoch" modified="No">1.000000e+00</Option>
    <Option name="SamplingImportance" modified="No">1.000000e+00</Option>
    <Option name="SamplingTraining" modified="No">True</Option>
    <Option name="SamplingTesting" modified="No">False</Option>
    <Option name="ResetStep" modified="No">50</Option>
    <Option name="Tau" modified="No">3.000000e+00</Option>
    <Option name="BPMode" modified="No">sequential</Option>
    <Option name="BatchSize" modified="No">-1</Option>
    <Option name="ConvergenceImprove" modified="No">1.000000e-30</Option>
    <Option name="ConvergenceTests" modified="No">-1</Option>
    <Option name="UseRegulator" modified="Yes">False</Option>
    <Option name="UpdateLimit" modified="No">10000</Option>
    <Option name="CalculateErrors" modified="No">False</Option>
    <Option name="WeightRange" modified="No">1.000000e+00</Option>
  </Options>
  <Variables NVar="8">
    <Variable VarIndex="0" Expression="var_vertexKFChi2" Label="var_vertexKFChi2" Title="Variable vertexKFChi2" Unit="units" Internal="var_vertexKFChi2" Type="F" Min="1.70780579e-04" Max="9.98552551e+01"/>
    <Variable VarIndex="1" Expression="var_svpvTauAngle" Label="var_svpvTauAngle" Title="Variable svpvTauAngle" Unit="units" Internal="var_svpvTauAngle" Type="F" Min="5.68933501e-05" Max="1.49654067e+00"/>
    <Variable VarIndex="2" Expression="var_flightLenSig" Label="var_flightLenSig" Title="Variable flightLenSig" Unit="units" Internal="var_flightLenSig" Type="F" Min="2.97363937e-01" Max="2.35642891e+01"/>
    <Variable VarIndex="3" Expression="var_sumMuTrkKinkChi2" Label="var_sumMuTrkKinkChi2" Title="Variable sumMuTrkKinkChi2" Unit="units" Internal="var_sumMuTrkKinkChi2" Type="F" Min="5.59860039e+00" Max="1.97417517e+03"/>
    <Variable VarIndex="4" Expression="var_segCompMuMin" Label="var_segCompMuMin" Title="Variable segCompMuMin" Unit="units" Internal="var_segCompMuMin" Type="F" Min="0.00000000e+00" Max="1.00000000e+00"/>
    <Variable VarIndex="5" Expression="var_MinMIPLikelihood" Label="var_MinMIPLikelihood" Title="Variable MinMIPLikelihood" Unit="units" Internal="var_MinMIPLikelihood" Type="F" Min="7.14050032e-07" Max="9.95764613e-01"/>
    <Variable VarIndex="6" Expression="var_isoMax" Label="var_isoMax" Title="Variable isoMax" Unit="units" Internal="var_isoMax" Type="F" Min="0.00000000e+00" Max="4.41369858e+01"/>
    <Variable VarIndex="7" Expression="var_maxdca" Label="var_maxdca" Title="Variable maxdca" Unit="units" Internal="var_maxdca" Type="F" Min="1.02996826e-04" Max="6.07498550e+00"/>
  </Variables>
  <Spectators NSpec="1">
    <Spectator SpecIndex="0" Expression="var_tauMass" Label="var_tauMass" Title="Variable tauMass" Unit="units" Internal="var_tauMass" Type="F" Min="6.72131002e-01" Max="3.83080459e+00"/>
  </Spectators>
  <Classes NClass="2">
    <Class Name="Signal" Index="0"/>
    <Class Name="Background" Index="1"/>
  </Classes>
  <Transformations NTransformations="1">
    <Transform Name="Normalize">
      <Selection>
        <Input NInputs="8">
          <Input Type="Variable" Label="var_vertexKFChi2" Expression="var_vertexKFChi2"/>
          <Input Type="Variable" Label="var_svpvTauAngle" Expression="var_svpvTauAngle"/>
          <Input Type="Variable" Label="var_flightLenSig" Expression="var_flightLenSig"/>
          <Input Type="Variable" Label="var_sumMuTrkKinkChi2" Expression="var_sumMuTrkKinkChi2"/>
          <Input Type="Variable" Label="var_segCompMuMin" Expression="var_segCompMuMin"/>
          <Input Type="Variable" Label="var_MinMIPLikelihood" Expression="var_MinMIPLikelihood"/>
          <Input Type="Variable" Label="var_isoMax" Expression="var_isoMax"/>
          <Input Type="Variable" Label="var_maxdca" Expression="var_maxdca"/>
        </Input>
        <Output NOutputs="8">
          <Output Type="Variable" Label="var_vertexKFChi2" Expression="var_vertexKFChi2"/>
          <Output Type="Variable" Label="var_svpvTauAngle" Expression="var_svpvTauAngle"/>
          <Output Type="Variable" Label="var_flightLenSig" Expression="var_flightLenSig"/>
          <Output Type="Variable" Label="var_sumMuTrkKinkChi2" Expression="var_sumMuTrkKinkChi2"/>
          <Output Type="Variable" Label="var_segCompMuMin" Expression="var_segCompMuMin"/>
          <Output Type="Variable" Label="var_MinMIPLikelihood" Expression="var_MinMIPLikelihood"/>
          <Output Type="Variable" Label="var_isoMax" Expression="var_isoMax"/>
          <Output Type="Variable" Label="var_maxdca" Expression="var_maxdca"/>
        </Output>
      </Selection>
      <Class ClassIndex="0">
        <Ranges>
          <Range Index="0" Min="1.7078057862818241e-04" Max="9.8002868652343750e+01"/>
          <Range Index="1" Min="5.6893350119935349e-05" Max="1.0269557237625122e+00"/>
          <Range Index="2" Min="2.9736393690109253e-01" Max="2.2468923568725586e+01"/>
          <Range Index="3" Min="5.5986003875732422e+00" Max="1.1418796386718750e+03"/>
          <Range Index="4" Min="0.0000000000000000e+00" Max="1.0000000000000000e+00"/>
          <Range Index="5" Min="1.0219608839179273e-06" Max="9.9576461315155029e-01"/>
          <Range Index="6" Min="0.0000000000000000e+00" Max="4.4136985778808594e+01"/>
          <Range Index="7" Min="1.0299682617187500e-04" Max="6.0749855041503906e+00"/>
        </Ranges>
      </Class>
      <Class ClassIndex="1">
        <Ranges>
          <Range Index="0" Min="3.9369955658912659e-02" Max="9.9855255126953125e+01"/>
          <Range Index="1" Min="2.6365913799963892e-04" Max="1.4965406656265259e+00"/>
          <Range Index="2" Min="4.0024158358573914e-01" Max="2.3564289093017578e+01"/>
          <Range Index="3" Min="6.3308172225952148e+00" Max="1.9741751708984375e+03"/>
          <Range Index="4" Min="0.0000000000000000e+00" Max="1.0000000000000000e+00"/>
          <Range Index="5" Min="7.1405003154723090e-07" Max="9.9346071481704712e-01"/>
          <Range Index="6" Min="1.4020901173353195e-02" Max="3.6415752410888672e+01"/>
          <Range Index="7" Min="5.0294399261474609e-04" Max="7.9666733741760254e-01"/>
        </Ranges>
      </Class>
      <Class ClassIndex="2">
        <Ranges>
          <Range Index="0" Min="1.7078057862818241e-04" Max="9.9855255126953125e+01"/>
          <Range Index="1" Min="5.6893350119935349e-05" Max="1.4965406656265259e+00"/>
          <Range Index="2" Min="2.9736393690109253e-01" Max="2.3564289093017578e+01"/>
          <Range Index="3" Min="5.5986003875732422e+00" Max="1.9741751708984375e+03"/>
          <Range Index="4" Min="0.0000000000000000e+00" Max="1.0000000000000000e+00"/>
          <Range Index="5" Min="7.1405003154723090e-07" Max="9.9576461315155029e-01"/>
          <Range Index="6" Min="0.0000000000000000e+00" Max="4.4136985778808594e+01"/>
          <Range Index="7" Min="1.0299682617187500e-04" Max="6.0749855041503906e+00"/>
        </Ranges>
      </Class>
    </Transform>
  </Transformations>
  <MVAPdfs/>
  <Weights>
    <Layout NLayers="3">
      <Layer Index="0" NNeurons="9">
        <Neuron NSynapses="13">
          -4.7030428940844304e-01 6.4464888952664241e+00 -1.2670103162330690e-01 -2.0001703396504036e-01 -1.2273691237962072e+00 6.3250492982581097e-01 -7.8100042166374484e-01 9.9945675838572900e-01 -6.0379170675325788e+00 3.7061415829006983e-01 -9.0249394044503095e-01 -8.4449127059866713e-01 -4.4046857279131277e+00 
        </Neuron>
        <Neuron NSynapses="13">
          9.3628342717056567e-01 -2.1042102058812628e+00 2.8699775652011169e+01 6.7483019016396883e-01 1.9342844120449698e+00 1.0754819581920740e-01 8.0445099972333411e-01 -4.1672098297896876e-01 -5.0329704749349506e+00 7.0151590270890445e+00 -3.6069246776531587e+00 -1.4069220051784617e+00 -6.7451914489071205e+00 
        </Neuron>
        <Neuron NSynapses="13">
          2.7630762746749173e-02 -9.3739283298384291e-01 -7.6182894057482575e-01 1.9255427068729478e-01 -8.2634051424619936e-01 -5.7988302204296904e-01 -1.8950689831641301e+00 -2.5071128274338066e+00 1.4513790908407818e+00 4.4241792056123685e+00 -7.2290646611833775e-01 1.1695714825380870e+00 7.3590179368701758e-01 
        </Neuron>
        <Neuron NSynapses="13">
          2.1836383265210992e+00 -9.8866589371904623e-01 -8.7855262831391312e-01 2.8618818441461205e+00 -5.6689698444205716e-01 8.3269479176816552e-01 -2.1576408245262528e+00 2.5808016119869475e+00 1.6996921898898327e+00 5.6186731497331630e+00 4.0944173280871308e+00 9.6849019370582468e-01 6.8191817589262516e-01 
        </Neuron>
        <Neuron NSynapses="13">
          -5.4993256168928504e+00 8.3905174398822738e-02 -1.1430047486460236e-01 9.0214201773870584e-01 -8.5145190064174703e-01 -3.4860752068833412e+00 -7.3452738672073359e-01 -3.3167001395507278e-01 -2.8723478488550902e-01 1.7316786846224289e-01 -6.6627210356867261e-01 7.1523682196287841e-01 1.9232697249974012e-01 
        </Neuron>
        <Neuron NSynapses="13">
          -1.5664701163272218e-01 -2.3595863726479699e-01 -3.7883277402550111e-02 1.8057401553215953e+00 -7.3351838964160054e-01 -2.6903500088078407e+00 -1.2185075220989412e+00 -8.1253464867834437e-03 -2.0746236974015070e-01 8.6191380121702466e-02 -1.9996245395049358e-01 -1.4745440582353164e+00 -4.6022217368284629e-02 
        </Neuron>
        <Neuron NSynapses="13">
          4.8562682777738192e-01 -1.0777025176132538e+00 -2.8361309924797535e-02 6.9495015453892484e-01 8.8852750473098030e-01 9.3491405309418441e-01 -1.2735460753611678e+00 7.9201078222685284e-01 2.9549598210509194e+00 -2.7374351657438711e-01 -1.3972224087359036e-01 -2.5352478231804456e+00 -6.9143886325234698e+00 
        </Neuron>
        <Neuron NSynapses="13">
          1.1579940073197499e-01 8.9002205709973048e-01 -1.1194705385596572e+01 -1.8401500262881008e+00 1.3741698765768888e+00 -1.6983245744738149e+00 -1.4787226991820666e+00 -5.5207306788619914e-01 1.9423040934946347e+00 -7.0791310640652778e+00 -1.4166149772964733e+00 -4.5706490402665889e-02 6.5769553495346518e+00 
        </Neuron>
        <Neuron NSynapses="13">
          -1.8604943990511795e+00 1.5187172654551301e-01 1.5837458487306993e+01 1.3209434235902329e-01 5.0116096345871042e-01 2.3491276135756420e+00 -1.8265771689479078e+00 1.4174572628299786e+00 -3.8444018078506086e+00 8.0535515261831456e+00 -6.9640634362889409e-01 2.5238830108439005e+00 -9.6618976142791642e+00 
        </Neuron>
      </Layer>
      <Layer Index="1" NNeurons="14">
        <Neuron NSynapses="1">
          -8.3771526699811194e-01 
        </Neuron>
        <Neuron NSynapses="1">
          7.5927111332758834e-01 
        </Neuron>
        <Neuron NSynapses="1">
          -2.9792842219947029e+00 
        </Neuron>
        <Neuron NSynapses="1">
          -4.3482984068872566e-01 
        </Neuron>
        <Neuron NSynapses="1">
          -1.3908599610696029e+00 
        </Neuron>
        <Neuron NSynapses="1">
          -5.6701167299156041e-01 
        </Neuron>
        <Neuron NSynapses="1">
          3.3827800709650004e+00 
        </Neuron>
        <Neuron NSynapses="1">
          -1.4955800174238429e+00 
        </Neuron>
        <Neuron NSynapses="1">
          1.2475528918379759e+00 
        </Neuron>
        <Neuron NSynapses="1">
          -2.1219657833056571e+00 
        </Neuron>
        <Neuron NSynapses="1">
          -2.0933250391035720e+00 
        </Neuron>
        <Neuron NSynapses="1">
          -3.5746445614491718e-01 
        </Neuron>
        <Neuron NSynapses="1">
          1.3183682502837861e+00 
        </Neuron>
        <Neuron NSynapses="1">
          1.4815729400492603e+00 
        </Neuron>
      </Layer>
      <Layer Index="2" NNeurons="1">
        <Neuron NSynapses="0"/>
      </Layer>
    </Layout>
  </Weights>
</MethodSetup>
