<?xml version="1.0"?>
<MethodSetup Method="MLP::MLP">
  <GeneralInfo>
    <Info name="TMVA Release" value="4.2.1 [262657]"/>
    <Info name="ROOT Release" value="6.10/05 [395781]"/>
    <Info name="Creator" value="bjoshi"/>
    <Info name="Date" value="Wed Jul 24 14:05:10 2019"/>
    <Info name="Host" value="Linux cmsbuild24.cern.ch 2.6.32-642.11.1.el6.x86_64 #1 SMP Wed Nov 16 09:40:09 CET 2016 x86_64 x86_64 x86_64 GNU/Linux"/>
    <Info name="Dir" value="/afs/cern.ch/work/b/bjoshi/Analysis/workdirtmvaanalysisJul_11_2019/Code/CommonUtils/tmva"/>
    <Info name="Training events" value="37861"/>
    <Info name="TrainingTime" value="1.70668671e+02"/>
    <Info name="AnalysisType" value="Classification"/>
  </GeneralInfo>
  <Options>
    <Option name="NCycles" modified="Yes">600</Option>
    <Option name="HiddenLayers" modified="Yes">N+5</Option>
    <Option name="NeuronType" modified="Yes">tanh</Option>
    <Option name="RandomSeed" modified="No">1</Option>
    <Option name="EstimatorType" modified="No">CE</Option>
    <Option name="NeuronInputType" modified="No">sum</Option>
    <Option name="V" modified="Yes">False</Option>
    <Option name="VerbosityLevel" modified="No">Default</Option>
    <Option name="VarTransform" modified="Yes">N</Option>
    <Option name="H" modified="Yes">True</Option>
    <Option name="CreateMVAPdfs" modified="No">False</Option>
    <Option name="IgnoreNegWeightsInTraining" modified="No">False</Option>
    <Option name="TrainingMethod" modified="No">BP</Option>
    <Option name="LearningRate" modified="No">2.000000e-02</Option>
    <Option name="DecayRate" modified="No">1.000000e-02</Option>
    <Option name="TestRate" modified="Yes">5</Option>
    <Option name="EpochMonitoring" modified="No">False</Option>
    <Option name="Sampling" modified="No">1.000000e+00</Option>
    <Option name="SamplingEpoch" modified="No">1.000000e+00</Option>
    <Option name="SamplingImportance" modified="No">1.000000e+00</Option>
    <Option name="SamplingTraining" modified="No">True</Option>
    <Option name="SamplingTesting" modified="No">False</Option>
    <Option name="ResetStep" modified="No">50</Option>
    <Option name="Tau" modified="No">3.000000e+00</Option>
    <Option name="BPMode" modified="No">sequential</Option>
    <Option name="BatchSize" modified="No">-1</Option>
    <Option name="ConvergenceImprove" modified="No">1.000000e-30</Option>
    <Option name="ConvergenceTests" modified="No">-1</Option>
    <Option name="UseRegulator" modified="Yes">False</Option>
    <Option name="UpdateLimit" modified="No">10000</Option>
    <Option name="CalculateErrors" modified="No">False</Option>
    <Option name="WeightRange" modified="No">1.000000e+00</Option>
  </Options>
  <Variables NVar="8">
    <Variable VarIndex="0" Expression="var_vertexKFChi2" Label="var_vertexKFChi2" Title="Variable vertexKFChi2" Unit="units" Internal="var_vertexKFChi2" Type="F" Min="1.70780579e-04" Max="9.80028687e+01"/>
    <Variable VarIndex="1" Expression="var_svpvTauAngle" Label="var_svpvTauAngle" Title="Variable svpvTauAngle" Unit="units" Internal="var_svpvTauAngle" Type="F" Min="5.68933501e-05" Max="1.39833474e+00"/>
    <Variable VarIndex="2" Expression="var_flightLenSig" Label="var_flightLenSig" Title="Variable flightLenSig" Unit="units" Internal="var_flightLenSig" Type="F" Min="2.97363937e-01" Max="3.06403370e+01"/>
    <Variable VarIndex="3" Expression="var_sumMuTrkKinkChi2" Label="var_sumMuTrkKinkChi2" Title="Variable sumMuTrkKinkChi2" Unit="units" Internal="var_sumMuTrkKinkChi2" Type="F" Min="5.59860039e+00" Max="1.60603528e+03"/>
    <Variable VarIndex="4" Expression="var_segCompMuMin" Label="var_segCompMuMin" Title="Variable segCompMuMin" Unit="units" Internal="var_segCompMuMin" Type="F" Min="0.00000000e+00" Max="1.00000000e+00"/>
    <Variable VarIndex="5" Expression="var_MinMIPLikelihood" Label="var_MinMIPLikelihood" Title="Variable MinMIPLikelihood" Unit="units" Internal="var_MinMIPLikelihood" Type="F" Min="7.14050032e-07" Max="9.95764613e-01"/>
    <Variable VarIndex="6" Expression="var_isoMax" Label="var_isoMax" Title="Variable isoMax" Unit="units" Internal="var_isoMax" Type="F" Min="0.00000000e+00" Max="4.41369858e+01"/>
    <Variable VarIndex="7" Expression="var_maxdca" Label="var_maxdca" Title="Variable maxdca" Unit="units" Internal="var_maxdca" Type="F" Min="1.02996826e-04" Max="6.07498550e+00"/>
  </Variables>
  <Spectators NSpec="1">
    <Spectator SpecIndex="0" Expression="var_tauMass" Label="var_tauMass" Title="Variable tauMass" Unit="units" Internal="var_tauMass" Type="F" Min="6.72131002e-01" Max="3.83080459e+00"/>
  </Spectators>
  <Classes NClass="2">
    <Class Name="Signal" Index="0"/>
    <Class Name="Background" Index="1"/>
  </Classes>
  <Transformations NTransformations="1">
    <Transform Name="Normalize">
      <Selection>
        <Input NInputs="8">
          <Input Type="Variable" Label="var_vertexKFChi2" Expression="var_vertexKFChi2"/>
          <Input Type="Variable" Label="var_svpvTauAngle" Expression="var_svpvTauAngle"/>
          <Input Type="Variable" Label="var_flightLenSig" Expression="var_flightLenSig"/>
          <Input Type="Variable" Label="var_sumMuTrkKinkChi2" Expression="var_sumMuTrkKinkChi2"/>
          <Input Type="Variable" Label="var_segCompMuMin" Expression="var_segCompMuMin"/>
          <Input Type="Variable" Label="var_MinMIPLikelihood" Expression="var_MinMIPLikelihood"/>
          <Input Type="Variable" Label="var_isoMax" Expression="var_isoMax"/>
          <Input Type="Variable" Label="var_maxdca" Expression="var_maxdca"/>
        </Input>
        <Output NOutputs="8">
          <Output Type="Variable" Label="var_vertexKFChi2" Expression="var_vertexKFChi2"/>
          <Output Type="Variable" Label="var_svpvTauAngle" Expression="var_svpvTauAngle"/>
          <Output Type="Variable" Label="var_flightLenSig" Expression="var_flightLenSig"/>
          <Output Type="Variable" Label="var_sumMuTrkKinkChi2" Expression="var_sumMuTrkKinkChi2"/>
          <Output Type="Variable" Label="var_segCompMuMin" Expression="var_segCompMuMin"/>
          <Output Type="Variable" Label="var_MinMIPLikelihood" Expression="var_MinMIPLikelihood"/>
          <Output Type="Variable" Label="var_isoMax" Expression="var_isoMax"/>
          <Output Type="Variable" Label="var_maxdca" Expression="var_maxdca"/>
        </Output>
      </Selection>
      <Class ClassIndex="0">
        <Ranges>
          <Range Index="0" Min="1.7078057862818241e-04" Max="9.8002868652343750e+01"/>
          <Range Index="1" Min="5.6893350119935349e-05" Max="1.0269557237625122e+00"/>
          <Range Index="2" Min="2.9736393690109253e-01" Max="2.2468923568725586e+01"/>
          <Range Index="3" Min="5.5986003875732422e+00" Max="1.1418796386718750e+03"/>
          <Range Index="4" Min="0.0000000000000000e+00" Max="1.0000000000000000e+00"/>
          <Range Index="5" Min="1.0219608839179273e-06" Max="9.9576461315155029e-01"/>
          <Range Index="6" Min="0.0000000000000000e+00" Max="4.4136985778808594e+01"/>
          <Range Index="7" Min="1.0299682617187500e-04" Max="6.0749855041503906e+00"/>
        </Ranges>
      </Class>
      <Class ClassIndex="1">
        <Ranges>
          <Range Index="0" Min="3.5527084022760391e-02" Max="9.4292167663574219e+01"/>
          <Range Index="1" Min="6.6476507345214486e-04" Max="1.3983347415924072e+00"/>
          <Range Index="2" Min="4.0024158358573914e-01" Max="3.0640336990356445e+01"/>
          <Range Index="3" Min="6.9132170677185059e+00" Max="1.6060352783203125e+03"/>
          <Range Index="4" Min="0.0000000000000000e+00" Max="1.0000000000000000e+00"/>
          <Range Index="5" Min="7.1405003154723090e-07" Max="9.8315459489822388e-01"/>
          <Range Index="6" Min="1.4020901173353195e-02" Max="3.6415752410888672e+01"/>
          <Range Index="7" Min="8.9848041534423828e-04" Max="1.9345388412475586e+00"/>
        </Ranges>
      </Class>
      <Class ClassIndex="2">
        <Ranges>
          <Range Index="0" Min="1.7078057862818241e-04" Max="9.8002868652343750e+01"/>
          <Range Index="1" Min="5.6893350119935349e-05" Max="1.3983347415924072e+00"/>
          <Range Index="2" Min="2.9736393690109253e-01" Max="3.0640336990356445e+01"/>
          <Range Index="3" Min="5.5986003875732422e+00" Max="1.6060352783203125e+03"/>
          <Range Index="4" Min="0.0000000000000000e+00" Max="1.0000000000000000e+00"/>
          <Range Index="5" Min="7.1405003154723090e-07" Max="9.9576461315155029e-01"/>
          <Range Index="6" Min="0.0000000000000000e+00" Max="4.4136985778808594e+01"/>
          <Range Index="7" Min="1.0299682617187500e-04" Max="6.0749855041503906e+00"/>
        </Ranges>
      </Class>
    </Transform>
  </Transformations>
  <MVAPdfs/>
  <Weights>
    <Layout NLayers="3">
      <Layer Index="0" NNeurons="9">
        <Neuron NSynapses="13">
          -1.1924747170978181e-01 6.4333540967774194e+00 2.8407732934948515e-01 1.1011825862863578e+00 -1.8811446038266451e+00 1.8306244700847535e-01 6.0092558277208115e-02 1.7769352932806115e+00 -3.9576626758097615e+00 2.8266866339508784e-01 -1.8729323897842878e+00 -5.6418729057235195e-01 -9.2200479820820602e-01 
        </Neuron>
        <Neuron NSynapses="13">
          7.7811767976937918e-01 -7.3900473699257707e-01 2.5297461398354493e+01 3.9461802347706942e-01 2.0329073265584223e+00 5.7313583323224382e-01 5.3332686422677977e-01 -3.0206927948569815e+00 -2.4138381017185182e+00 2.5919323021146607e+00 -1.9259806411296438e+00 -1.0784102532564777e+00 -9.6103652112387987e+00 
        </Neuron>
        <Neuron NSynapses="13">
          1.1496209629424787e+00 -1.8832496709723414e+00 -1.6554636161544942e+00 5.7409098399213920e-01 8.6440770127831101e-01 6.0179389038181563e-01 -1.4218358006406822e+00 -1.5103728301106729e+00 2.5962307167026366e+00 1.4910944409689928e+00 -8.8327409966822557e-01 1.0530098428476631e+00 -6.0391423991301494e+00 
        </Neuron>
        <Neuron NSynapses="13">
          2.4367379183600218e-01 -6.0753911974207453e-01 -4.7676442688351045e-01 1.8885102419290860e+00 9.1059414616778200e-01 1.2423068063162575e+00 -7.9977217163914915e-01 1.9047408317398005e+00 9.7938408593192347e-02 3.7898785446951848e+00 3.9006636327303967e+00 1.0378612267798255e+00 -2.4097108403322834e-01 
        </Neuron>
        <Neuron NSynapses="13">
          -4.8295769579540329e+00 1.2536589686064621e-02 -9.8570737429730645e-02 -5.8884647678632433e-02 -1.3527277627568932e+00 -3.2868534793270392e+00 -1.6149844028723606e-01 -1.5356965611149870e-02 2.7243463966007082e-02 -1.5676988111307284e+00 -9.0514611215051638e-02 9.5089384983716452e-01 -1.0201272751698547e-01 
        </Neuron>
        <Neuron NSynapses="13">
          -4.1135335752891661e-01 6.0479796899788191e-02 -1.6169239857828272e-02 1.2204938640189684e+00 -6.7968609563718796e-01 -1.9308712716710716e+00 -9.7706767588319265e-01 -2.1343245759124665e-01 1.3586230295264676e-01 4.2548481187967518e-01 -3.3994123396350312e-01 -1.5700886959273292e+00 -9.1361224858954163e-02 
        </Neuron>
        <Neuron NSynapses="13">
          1.1362999264183249e-02 -1.8664666690655252e+00 2.6406999960246624e-01 1.1459172941433990e+00 1.0826846714999976e+00 -7.7596477188535307e-01 -6.3304035063288899e-01 2.7821830163475347e+00 -3.0415760021081151e-01 7.0827997167044643e-01 -3.0268768924489793e+00 -2.6993897302452412e+00 -5.0215726070669253e-01 
        </Neuron>
        <Neuron NSynapses="13">
          6.2486949391338842e-01 5.5603364933205757e-01 -9.7241927660244816e+00 -1.6650692525544028e-01 1.6491040468969345e+00 -1.3463377472051490e+00 -1.8646747769699386e+00 -8.0439794839274803e-01 9.2136080457149105e-01 -3.9194220637220485e+00 2.5690671758610772e-01 7.7756166087981859e-02 7.5251197335475961e+00 
        </Neuron>
        <Neuron NSynapses="13">
          -1.8433566727468338e+00 1.8797712737951192e-01 1.4034091818591053e+01 -1.4895794842191641e+00 -6.0372269308278124e-02 1.7611087130090743e+00 -1.8139120233207238e+00 1.7744189340279863e+00 -2.9563045737722642e+00 4.6133569257797040e+00 -1.6855478085451179e+00 2.4447080117696087e+00 -7.5469159837005142e+00 
        </Neuron>
      </Layer>
      <Layer Index="1" NNeurons="14">
        <Neuron NSynapses="1">
          -1.0138508826721484e+00 
        </Neuron>
        <Neuron NSynapses="1">
          1.2723175412112826e+00 
        </Neuron>
        <Neuron NSynapses="1">
          -3.3406870809468820e+00 
        </Neuron>
        <Neuron NSynapses="1">
          -2.3709165008210396e+00 
        </Neuron>
        <Neuron NSynapses="1">
          -1.1637320898909802e+00 
        </Neuron>
        <Neuron NSynapses="1">
          -4.4842603454847224e-01 
        </Neuron>
        <Neuron NSynapses="1">
          2.1498137985289163e+00 
        </Neuron>
        <Neuron NSynapses="1">
          -1.8790356662901122e+00 
        </Neuron>
        <Neuron NSynapses="1">
          1.7165601711388092e+00 
        </Neuron>
        <Neuron NSynapses="1">
          -8.2016585276086040e-01 
        </Neuron>
        <Neuron NSynapses="1">
          -1.8103827363755021e+00 
        </Neuron>
        <Neuron NSynapses="1">
          -1.1966920696190704e+00 
        </Neuron>
        <Neuron NSynapses="1">
          1.9734900614531821e+00 
        </Neuron>
        <Neuron NSynapses="1">
          1.3893197545217619e+00 
        </Neuron>
      </Layer>
      <Layer Index="2" NNeurons="1">
        <Neuron NSynapses="0"/>
      </Layer>
    </Layout>
  </Weights>
</MethodSetup>
