<?xml version="1.0"?>
<MethodSetup Method="MLP::MLP">
  <GeneralInfo>
    <Info name="TMVA Release" value="4.2.1 [262657]"/>
    <Info name="ROOT Release" value="6.10/05 [395781]"/>
    <Info name="Creator" value="bjoshi"/>
    <Info name="Date" value="Wed Jul 24 13:58:18 2019"/>
    <Info name="Host" value="Linux cmsbuild24.cern.ch 2.6.32-642.11.1.el6.x86_64 #1 SMP Wed Nov 16 09:40:09 CET 2016 x86_64 x86_64 x86_64 GNU/Linux"/>
    <Info name="Dir" value="/afs/cern.ch/work/b/bjoshi/Analysis/workdirtmvaanalysisJul_11_2019/Code/CommonUtils/tmva"/>
    <Info name="Training events" value="39279"/>
    <Info name="TrainingTime" value="1.67034227e+02"/>
    <Info name="AnalysisType" value="Classification"/>
  </GeneralInfo>
  <Options>
    <Option name="NCycles" modified="Yes">600</Option>
    <Option name="HiddenLayers" modified="Yes">N+5</Option>
    <Option name="NeuronType" modified="Yes">tanh</Option>
    <Option name="RandomSeed" modified="No">1</Option>
    <Option name="EstimatorType" modified="No">CE</Option>
    <Option name="NeuronInputType" modified="No">sum</Option>
    <Option name="V" modified="Yes">False</Option>
    <Option name="VerbosityLevel" modified="No">Default</Option>
    <Option name="VarTransform" modified="Yes">N</Option>
    <Option name="H" modified="Yes">True</Option>
    <Option name="CreateMVAPdfs" modified="No">False</Option>
    <Option name="IgnoreNegWeightsInTraining" modified="No">False</Option>
    <Option name="TrainingMethod" modified="No">BP</Option>
    <Option name="LearningRate" modified="No">2.000000e-02</Option>
    <Option name="DecayRate" modified="No">1.000000e-02</Option>
    <Option name="TestRate" modified="Yes">5</Option>
    <Option name="EpochMonitoring" modified="No">False</Option>
    <Option name="Sampling" modified="No">1.000000e+00</Option>
    <Option name="SamplingEpoch" modified="No">1.000000e+00</Option>
    <Option name="SamplingImportance" modified="No">1.000000e+00</Option>
    <Option name="SamplingTraining" modified="No">True</Option>
    <Option name="SamplingTesting" modified="No">False</Option>
    <Option name="ResetStep" modified="No">50</Option>
    <Option name="Tau" modified="No">3.000000e+00</Option>
    <Option name="BPMode" modified="No">sequential</Option>
    <Option name="BatchSize" modified="No">-1</Option>
    <Option name="ConvergenceImprove" modified="No">1.000000e-30</Option>
    <Option name="ConvergenceTests" modified="No">-1</Option>
    <Option name="UseRegulator" modified="Yes">False</Option>
    <Option name="UpdateLimit" modified="No">10000</Option>
    <Option name="CalculateErrors" modified="No">False</Option>
    <Option name="WeightRange" modified="No">1.000000e+00</Option>
  </Options>
  <Variables NVar="8">
    <Variable VarIndex="0" Expression="var_vertexKFChi2" Label="var_vertexKFChi2" Title="Variable vertexKFChi2" Unit="units" Internal="var_vertexKFChi2" Type="F" Min="1.70780579e-04" Max="9.91781158e+01"/>
    <Variable VarIndex="1" Expression="var_svpvTauAngle" Label="var_svpvTauAngle" Title="Variable svpvTauAngle" Unit="units" Internal="var_svpvTauAngle" Type="F" Min="5.68933501e-05" Max="2.77540851e+00"/>
    <Variable VarIndex="2" Expression="var_flightLenSig" Label="var_flightLenSig" Title="Variable flightLenSig" Unit="units" Internal="var_flightLenSig" Type="F" Min="2.47926995e-01" Max="2.24689236e+01"/>
    <Variable VarIndex="3" Expression="var_sumMuTrkKinkChi2" Label="var_sumMuTrkKinkChi2" Title="Variable sumMuTrkKinkChi2" Unit="units" Internal="var_sumMuTrkKinkChi2" Type="F" Min="4.73337364e+00" Max="2.69192041e+03"/>
    <Variable VarIndex="4" Expression="var_segCompMuMin" Label="var_segCompMuMin" Title="Variable segCompMuMin" Unit="units" Internal="var_segCompMuMin" Type="F" Min="0.00000000e+00" Max="1.00000000e+00"/>
    <Variable VarIndex="5" Expression="var_MinMIPLikelihood" Label="var_MinMIPLikelihood" Title="Variable MinMIPLikelihood" Unit="units" Internal="var_MinMIPLikelihood" Type="F" Min="1.02196088e-06" Max="9.95764613e-01"/>
    <Variable VarIndex="6" Expression="var_isoMax" Label="var_isoMax" Title="Variable isoMax" Unit="units" Internal="var_isoMax" Type="F" Min="0.00000000e+00" Max="4.41369858e+01"/>
    <Variable VarIndex="7" Expression="var_maxdca" Label="var_maxdca" Title="Variable maxdca" Unit="units" Internal="var_maxdca" Type="F" Min="1.02996826e-04" Max="6.07498550e+00"/>
  </Variables>
  <Spectators NSpec="1">
    <Spectator SpecIndex="0" Expression="var_tauMass" Label="var_tauMass" Title="Variable tauMass" Unit="units" Internal="var_tauMass" Type="F" Min="6.72131002e-01" Max="3.83080459e+00"/>
  </Spectators>
  <Classes NClass="2">
    <Class Name="Signal" Index="0"/>
    <Class Name="Background" Index="1"/>
  </Classes>
  <Transformations NTransformations="1">
    <Transform Name="Normalize">
      <Selection>
        <Input NInputs="8">
          <Input Type="Variable" Label="var_vertexKFChi2" Expression="var_vertexKFChi2"/>
          <Input Type="Variable" Label="var_svpvTauAngle" Expression="var_svpvTauAngle"/>
          <Input Type="Variable" Label="var_flightLenSig" Expression="var_flightLenSig"/>
          <Input Type="Variable" Label="var_sumMuTrkKinkChi2" Expression="var_sumMuTrkKinkChi2"/>
          <Input Type="Variable" Label="var_segCompMuMin" Expression="var_segCompMuMin"/>
          <Input Type="Variable" Label="var_MinMIPLikelihood" Expression="var_MinMIPLikelihood"/>
          <Input Type="Variable" Label="var_isoMax" Expression="var_isoMax"/>
          <Input Type="Variable" Label="var_maxdca" Expression="var_maxdca"/>
        </Input>
        <Output NOutputs="8">
          <Output Type="Variable" Label="var_vertexKFChi2" Expression="var_vertexKFChi2"/>
          <Output Type="Variable" Label="var_svpvTauAngle" Expression="var_svpvTauAngle"/>
          <Output Type="Variable" Label="var_flightLenSig" Expression="var_flightLenSig"/>
          <Output Type="Variable" Label="var_sumMuTrkKinkChi2" Expression="var_sumMuTrkKinkChi2"/>
          <Output Type="Variable" Label="var_segCompMuMin" Expression="var_segCompMuMin"/>
          <Output Type="Variable" Label="var_MinMIPLikelihood" Expression="var_MinMIPLikelihood"/>
          <Output Type="Variable" Label="var_isoMax" Expression="var_isoMax"/>
          <Output Type="Variable" Label="var_maxdca" Expression="var_maxdca"/>
        </Output>
      </Selection>
      <Class ClassIndex="0">
        <Ranges>
          <Range Index="0" Min="1.7078057862818241e-04" Max="9.8002868652343750e+01"/>
          <Range Index="1" Min="5.6893350119935349e-05" Max="1.0269557237625122e+00"/>
          <Range Index="2" Min="2.9736393690109253e-01" Max="2.2468923568725586e+01"/>
          <Range Index="3" Min="5.5986003875732422e+00" Max="1.1418796386718750e+03"/>
          <Range Index="4" Min="0.0000000000000000e+00" Max="1.0000000000000000e+00"/>
          <Range Index="5" Min="1.0219608839179273e-06" Max="9.9576461315155029e-01"/>
          <Range Index="6" Min="0.0000000000000000e+00" Max="4.4136985778808594e+01"/>
          <Range Index="7" Min="1.0299682617187500e-04" Max="6.0749855041503906e+00"/>
        </Ranges>
      </Class>
      <Class ClassIndex="1">
        <Ranges>
          <Range Index="0" Min="2.1349484100937843e-02" Max="9.9178115844726562e+01"/>
          <Range Index="1" Min="3.5307486541569233e-04" Max="2.7754085063934326e+00"/>
          <Range Index="2" Min="2.4792699515819550e-01" Max="2.0473781585693359e+01"/>
          <Range Index="3" Min="4.7333736419677734e+00" Max="2.6919204101562500e+03"/>
          <Range Index="4" Min="0.0000000000000000e+00" Max="1.0000000000000000e+00"/>
          <Range Index="5" Min="4.6827008191030473e-06" Max="9.9095076322555542e-01"/>
          <Range Index="6" Min="2.1971844136714935e-02" Max="3.0395278930664062e+01"/>
          <Range Index="7" Min="6.6184997558593750e-04" Max="2.3642616271972656e+00"/>
        </Ranges>
      </Class>
      <Class ClassIndex="2">
        <Ranges>
          <Range Index="0" Min="1.7078057862818241e-04" Max="9.9178115844726562e+01"/>
          <Range Index="1" Min="5.6893350119935349e-05" Max="2.7754085063934326e+00"/>
          <Range Index="2" Min="2.4792699515819550e-01" Max="2.2468923568725586e+01"/>
          <Range Index="3" Min="4.7333736419677734e+00" Max="2.6919204101562500e+03"/>
          <Range Index="4" Min="0.0000000000000000e+00" Max="1.0000000000000000e+00"/>
          <Range Index="5" Min="1.0219608839179273e-06" Max="9.9576461315155029e-01"/>
          <Range Index="6" Min="0.0000000000000000e+00" Max="4.4136985778808594e+01"/>
          <Range Index="7" Min="1.0299682617187500e-04" Max="6.0749855041503906e+00"/>
        </Ranges>
      </Class>
    </Transform>
  </Transformations>
  <MVAPdfs/>
  <Weights>
    <Layout NLayers="3">
      <Layer Index="0" NNeurons="9">
        <Neuron NSynapses="13">
          1.0507912490904461e+00 5.6217899114335665e+00 2.1540438584948998e+00 9.0384502233288011e-01 -1.2296655564960060e+00 -1.8618991500313755e+00 1.1917610104733021e+00 7.9985515122640982e-01 -7.8687286141317303e-01 -1.3735124783101176e+00 -6.9691335478284244e-01 1.8410841261595556e+00 -1.9979515448344387e+00 
        </Neuron>
        <Neuron NSynapses="13">
          1.7515178433932932e+00 -1.6121677114602895e+00 1.0583708000387830e+01 2.7829140352628379e-01 1.6951008318659058e+00 4.7989359309473223e-01 4.8787966727235565e-01 -3.8218663815025984e+00 -2.0069349274276306e+01 4.2247434825553389e+00 -5.4871468107440542e+00 -3.0621685104094563e+00 -1.6210353234319852e+00 
        </Neuron>
        <Neuron NSynapses="13">
          1.3766957178494936e+00 -2.0846223642066533e-01 -9.9202105846029145e+00 3.7129291639992046e-01 3.8722290610547982e-01 1.6240128506150875e+00 2.4270940947517305e-01 1.3220259385525701e-01 8.4313450191722505e-01 1.2462883568928147e+00 1.8317642214767405e-01 2.6575057850728262e-01 -1.9656756723639448e+00 
        </Neuron>
        <Neuron NSynapses="13">
          -1.0363694092010589e+00 -1.0474812799498776e+00 4.3653917138325724e+00 2.5331474251570261e+00 -4.0852575478844821e-01 2.8342712148414712e-01 -3.0367461012300638e+00 1.0093099828677302e-01 -3.9386180188418196e-01 5.5209600360506297e+00 3.5115527525840649e+00 6.0086961334673319e+00 1.7013202359953834e+00 
        </Neuron>
        <Neuron NSynapses="13">
          -2.1978719301800718e+00 -4.7346699580474390e-02 -2.9396978650963701e-01 -1.8601398590967769e-01 -1.5008565136394745e+00 -4.7785826378597509e+00 -1.3654526414468662e+00 6.6950119701830879e-01 7.9393838729938077e-02 -3.7567248044945045e-02 4.5858384606440782e-02 -2.3959033408006483e-01 4.8676200072433667e-01 
        </Neuron>
        <Neuron NSynapses="13">
          -4.0168490471628726e-01 4.4426357163863089e-02 -1.3039405196235971e-02 9.3102957168553890e-01 -3.9804090852341967e-01 -5.4369881827376720e-01 1.7351005950457677e-02 7.9187437664557481e-01 -1.1231174759836238e-01 -1.0053845077305940e-01 1.8643016528035877e-02 -3.2172154288531596e-01 -1.1776593514554419e+00 
        </Neuron>
        <Neuron NSynapses="13">
          1.6086766517598521e+00 3.6334225335561354e-01 1.7592099747140938e-01 8.8931564337900793e-01 1.5093832542516117e+00 -6.4236156454567939e-01 -1.1206233522083671e+00 -1.9705490358856687e-01 1.9058805785128885e-01 -1.5265999741968173e-02 -8.6650813891900782e+00 -4.1896859187934526e-01 1.6716214086942141e+00 
        </Neuron>
        <Neuron NSynapses="13">
          -1.6209812043112921e+00 -1.4406653642894485e+00 1.8596861333774875e-02 -1.9683946930158289e-01 1.6155607081237404e+00 -1.5747472943399869e+00 -4.6456892974318080e+00 -2.2692369790943738e+00 7.1370739698194519e-01 -1.9415655108511023e+00 4.5144643666954767e-02 9.3648932850107358e-01 1.1312260999839958e+00 
        </Neuron>
        <Neuron NSynapses="13">
          1.2623590516814336e+00 -5.7925976396414225e-01 8.4069944937536487e+00 -1.3881042476530925e+00 2.4196636050038720e-01 2.3409665966616928e+00 -5.9853042420955136e+00 -5.3031281356766256e+00 -2.0059952589803476e+01 8.1965408993325326e+00 -1.1694966609131543e+01 5.4797571538014056e+00 -1.1475025909313339e+00 
        </Neuron>
      </Layer>
      <Layer Index="1" NNeurons="14">
        <Neuron NSynapses="1">
          -5.9472617006482487e-01 
        </Neuron>
        <Neuron NSynapses="1">
          1.4093195212353524e+00 
        </Neuron>
        <Neuron NSynapses="1">
          -7.1090408718103704e-01 
        </Neuron>
        <Neuron NSynapses="1">
          -4.5244928036329055e+00 
        </Neuron>
        <Neuron NSynapses="1">
          -2.9156719808541682e+00 
        </Neuron>
        <Neuron NSynapses="1">
          -7.4052755688604566e-01 
        </Neuron>
        <Neuron NSynapses="1">
          1.2973023206492564e+00 
        </Neuron>
        <Neuron NSynapses="1">
          3.4379013700082045e-01 
        </Neuron>
        <Neuron NSynapses="1">
          6.2926704667806890e+00 
        </Neuron>
        <Neuron NSynapses="1">
          -2.1657820972040658e+00 
        </Neuron>
        <Neuron NSynapses="1">
          3.0732146903781961e+00 
        </Neuron>
        <Neuron NSynapses="1">
          -3.2800543359875345e+00 
        </Neuron>
        <Neuron NSynapses="1">
          6.5302427404366059e-01 
        </Neuron>
        <Neuron NSynapses="1">
          3.2975661696421965e+00 
        </Neuron>
      </Layer>
      <Layer Index="2" NNeurons="1">
        <Neuron NSynapses="0"/>
      </Layer>
    </Layout>
  </Weights>
</MethodSetup>
